<?xml version="1.0"?>
<opencv_storage>
<stage11>
  <maxWeakCount>38</maxWeakCount>
  <stageThreshold>-9.6317476034164429e-01</stageThreshold>
  <weakClassifiers>
    <_>
      <internalNodes>
        0 -1 395281 -2.6709219673648477e-04</internalNodes>
      <leafValues>
        -3.4152334928512573e-01 4.5311817526817322e-01</leafValues></_>
    <_>
      <internalNodes>
        0 -1 625091 -1.5124926343560219e-02</internalNodes>
      <leafValues>
        7.9779785871505737e-01 -9.3638785183429718e-02</leafValues></_>
    <_>
      <internalNodes>
        0 -1 1262 -3.1746441125869751e-01</internalNodes>
      <leafValues>
        5.0468528270721436e-01 -1.5854464471340179e-01</leafValues></_>
    <_>
      <internalNodes>
        0 -1 481272 -7.9290252178907394e-03</internalNodes>
      <leafValues>
        8.3841782808303833e-01 -1.0077182203531265e-01</leafValues></_>
    <_>
      <internalNodes>
        0 -1 563024 1.5579138416796923e-03</internalNodes>
      <leafValues>
        -1.5936039388179779e-01 4.1409841179847717e-01</leafValues></_>
    <_>
      <internalNodes>
        0 -1 606305 1.1499479413032532e-02</internalNodes>
      <leafValues>
        -7.7433787286281586e-02 6.9759047031402588e-01</leafValues></_>
    <_>
      <internalNodes>
        0 -1 378488 8.3973137661814690e-03</internalNodes>
      <leafValues>
        -1.0317092388868332e-01 5.0484520196914673e-01</leafValues></_>
    <_>
      <internalNodes>
        0 -1 531049 -1.8088446231558919e-03</internalNodes>
      <leafValues>
        -5.8996558189392090e-01 9.6109874546527863e-02</leafValues></_>
    <_>
      <internalNodes>
        0 -1 544187 1.6704270383343101e-03</internalNodes>
      <leafValues>
        -1.8811383843421936e-01 2.8422462940216064e-01</leafValues></_>
    <_>
      <internalNodes>
        0 -1 251780 -1.6913255676627159e-03</internalNodes>
      <leafValues>
        -6.7215055227279663e-01 7.1185626089572906e-02</leafValues></_>
    <_>
      <internalNodes>
        0 -1 413686 1.8869653344154358e-02</internalNodes>
      <leafValues>
        -1.4259067177772522e-01 3.9222899079322815e-01</leafValues></_>
    <_>
      <internalNodes>
        0 -1 404411 -4.7078924253582954e-03</internalNodes>
      <leafValues>
        2.7289447188377380e-01 -2.1533882617950439e-01</leafValues></_>
    <_>
      <internalNodes>
        0 -1 318758 -1.6184294596314430e-02</internalNodes>
      <leafValues>
        8.3511400222778320e-01 -6.5434344112873077e-02</leafValues></_>
    <_>
      <internalNodes>
        0 -1 365946 -2.1231966093182564e-02</internalNodes>
      <leafValues>
        6.7772293090820312e-01 -6.2792256474494934e-02</leafValues></_>
    <_>
      <internalNodes>
        0 -1 539872 1.8876912072300911e-03</internalNodes>
      <leafValues>
        9.7121462225914001e-02 -6.9011515378952026e-01</leafValues></_>
    <_>
      <internalNodes>
        0 -1 368397 -4.1575988871045411e-04</internalNodes>
      <leafValues>
        -4.8628804087638855e-01 9.1069653630256653e-02</leafValues></_>
    <_>
      <internalNodes>
        0 -1 363837 3.1574997119605541e-03</internalNodes>
      <leafValues>
        -1.3859125971794128e-01 3.7696421146392822e-01</leafValues></_>
    <_>
      <internalNodes>
        0 -1 555390 -4.2016096413135529e-03</internalNodes>
      <leafValues>
        -5.3964740037918091e-01 1.0155273973941803e-01</leafValues></_>
    <_>
      <internalNodes>
        0 -1 34284 1.4854144304990768e-02</internalNodes>
      <leafValues>
        5.8071218430995941e-02 -6.6378092765808105e-01</leafValues></_>
    <_>
      <internalNodes>
        0 -1 577594 8.9932698756456375e-05</internalNodes>
      <leafValues>
        1.2155202031135559e-01 -3.8161119818687439e-01</leafValues></_>
    <_>
      <internalNodes>
        0 -1 511417 -6.5447376109659672e-03</internalNodes>
      <leafValues>
        -5.4861325025558472e-01 8.8509388267993927e-02</leafValues></_>
    <_>
      <internalNodes>
        0 -1 436135 -8.7372064590454102e-03</internalNodes>
      <leafValues>
        3.9890202879905701e-01 -1.3427077233791351e-01</leafValues></_>
    <_>
      <internalNodes>
        0 -1 184188 -3.0730057042092085e-03</internalNodes>
      <leafValues>
        2.8292596340179443e-01 -1.7896288633346558e-01</leafValues></_>
    <_>
      <internalNodes>
        0 -1 300829 -3.5003677476197481e-03</internalNodes>
      <leafValues>
        2.7131527662277222e-01 -2.2278298437595367e-01</leafValues></_>
    <_>
      <internalNodes>
        0 -1 345897 -7.6124928891658783e-02</internalNodes>
      <leafValues>
        -8.6455410718917847e-01 6.1538301408290863e-02</leafValues></_>
    <_>
      <internalNodes>
        0 -1 374558 6.1271945014595985e-03</internalNodes>
      <leafValues>
        -1.2406799197196960e-01 4.6584916114807129e-01</leafValues></_>
    <_>
      <internalNodes>
        0 -1 569569 -1.6532769426703453e-02</internalNodes>
      <leafValues>
        7.4686157703399658e-01 -6.3263028860092163e-02</leafValues></_>
    <_>
      <internalNodes>
        0 -1 294148 -2.1715279668569565e-02</internalNodes>
      <leafValues>
        -5.6853753328323364e-01 1.0058056563138962e-01</leafValues></_>
    <_>
      <internalNodes>
        0 -1 387807 6.7794006317853928e-03</internalNodes>
      <leafValues>
        -9.4425044953823090e-02 5.9419012069702148e-01</leafValues></_>
    <_>
      <internalNodes>
        0 -1 331744 2.2507267072796822e-02</internalNodes>
      <leafValues>
        8.3502054214477539e-02 -7.5422930717468262e-01</leafValues></_>
    <_>
      <internalNodes>
        0 -1 534449 2.9675370082259178e-02</internalNodes>
      <leafValues>
        -1.3372148573398590e-01 3.9355015754699707e-01</leafValues></_>
    <_>
      <internalNodes>
        0 -1 296016 1.2009454891085625e-02</internalNodes>
      <leafValues>
        -1.5886393189430237e-01 3.4175539016723633e-01</leafValues></_>
    <_>
      <internalNodes>
        0 -1 352504 6.4742220565676689e-03</internalNodes>
      <leafValues>
        -9.2657849192619324e-02 6.1081421375274658e-01</leafValues></_>
    <_>
      <internalNodes>
        0 -1 378447 2.4146484211087227e-03</internalNodes>
      <leafValues>
        8.6329169571399689e-02 -7.0331579446792603e-01</leafValues></_>
    <_>
      <internalNodes>
        0 -1 293359 -3.6421809345483780e-03</internalNodes>
      <leafValues>
        -6.7937332391738892e-01 6.1251152306795120e-02</leafValues></_>
    <_>
      <internalNodes>
        0 -1 493821 -2.8981540352106094e-02</internalNodes>
      <leafValues>
        -7.2595459222793579e-01 5.3288780152797699e-02</leafValues></_>
    <_>
      <internalNodes>
        0 -1 395722 2.7710590511560440e-03</internalNodes>
      <leafValues>
        -9.1431930661201477e-02 5.7318425178527832e-01</leafValues></_>
    <_>
      <internalNodes>
        0 -1 96522 -9.6010277047753334e-03</internalNodes>
      <leafValues>
        2.5910663604736328e-01 -2.1905252337455750e-01</leafValues></_></weakClassifiers></stage11>
</opencv_storage>
