<?xml version="1.0"?>
<opencv_storage>
<stage0>
  <maxWeakCount>17</maxWeakCount>
  <stageThreshold>-1.1645529270172119e+00</stageThreshold>
  <weakClassifiers>
    <_>
      <internalNodes>
        0 -1 397676 -1.2811202555894852e-02</internalNodes>
      <leafValues>
        7.8210806846618652e-01 1.0821132920682430e-02</leafValues></_>
    <_>
      <internalNodes>
        0 -1 537677 1.1853264644742012e-02</internalNodes>
      <leafValues>
        -1.4127005636692047e-01 7.9527950286865234e-01</leafValues></_>
    <_>
      <internalNodes>
        0 -1 367799 -1.9138477742671967e-02</internalNodes>
      <leafValues>
        5.6746804714202881e-01 -2.2539663314819336e-01</leafValues></_>
    <_>
      <internalNodes>
        0 -1 554996 -2.4084549397230148e-02</internalNodes>
      <leafValues>
        6.5552103519439697e-01 -2.0728677511215210e-01</leafValues></_>
    <_>
      <internalNodes>
        0 -1 468262 -3.7918376619927585e-04</internalNodes>
      <leafValues>
        -6.6199117898941040e-01 2.3158119618892670e-01</leafValues></_>
    <_>
      <internalNodes>
        0 -1 468260 6.4954983827192336e-05</internalNodes>
      <leafValues>
        2.2562250494956970e-01 -5.4581904411315918e-01</leafValues></_>
    <_>
      <internalNodes>
        0 -1 518113 -5.2082128822803497e-02</internalNodes>
      <leafValues>
        -9.1485261917114258e-01 1.3106931746006012e-01</leafValues></_>
    <_>
      <internalNodes>
        0 -1 474766 8.8247343897819519e-02</internalNodes>
      <leafValues>
        1.4331503212451935e-01 -7.9949158430099487e-01</leafValues></_>
    <_>
      <internalNodes>
        0 -1 378514 8.7769050151109695e-03</internalNodes>
      <leafValues>
        -2.2318349778652191e-01 5.7802778482437134e-01</leafValues></_>
    <_>
      <internalNodes>
        0 -1 430812 -2.8243418782949448e-02</internalNodes>
      <leafValues>
        -6.6040182113647461e-01 1.9062985479831696e-01</leafValues></_>
    <_>
      <internalNodes>
        0 -1 372229 -1.4571467414498329e-02</internalNodes>
      <leafValues>
        4.8644202947616577e-01 -2.5972965359687805e-01</leafValues></_>
    <_>
      <internalNodes>
        0 -1 616159 2.4028483778238297e-02</internalNodes>
      <leafValues>
        -1.6496764123439789e-01 6.6703242063522339e-01</leafValues></_>
    <_>
      <internalNodes>
        0 -1 322954 2.6417899876832962e-02</internalNodes>
      <leafValues>
        1.8932963907718658e-01 -6.9610935449600220e-01</leafValues></_>
    <_>
      <internalNodes>
        0 -1 41102 -2.1139074862003326e-01</internalNodes>
      <leafValues>
        5.8705258369445801e-01 -1.8617537617683411e-01</leafValues></_>
    <_>
      <internalNodes>
        0 -1 111891 1.2488031387329102e-01</internalNodes>
      <leafValues>
        -1.8059565126895905e-01 6.0160976648330688e-01</leafValues></_>
    <_>
      <internalNodes>
        0 -1 563227 1.3484251685440540e-03</internalNodes>
      <leafValues>
        1.7755766212940216e-01 -6.2901538610458374e-01</leafValues></_>
    <_>
      <internalNodes>
        0 -1 578931 -6.4037449192255735e-04</internalNodes>
      <leafValues>
        -6.0607475042343140e-01 1.8921808898448944e-01</leafValues></_></weakClassifiers></stage0>
</opencv_storage>
